Language model created by QuickLM on Wed Jun 28 14:15:04 EDT 2017
Copyright (c) 1996-2010 Carnegie Mellon University and Alexander I. Rudnicky

The model is in standard ARPA format, designed by Doug Paul while he was at MITRE.

The code that was used to produce this language model is available in Open Source.
Please visit http://www.speech.cs.cmu.edu/tools/ for more information

The (fixed) discount mass is 0.5. The backoffs are computed using the ratio method.
This model based on a corpus of 33 sentences and 40 words

\data\
ngram 1=40
ngram 2=76
ngram 3=80

\1-grams:
-1.0231 </s> -0.3010
-1.0231 <s> -0.2578
-2.5416 CLASSIFY -0.2578
-2.5416 COMMANDS -0.2578
-2.5416 CONTINUOUS -0.2578
-2.5416 DEBUG -0.2998
-2.2405 DECREASE -0.2578
-2.2405 DEFAULT -0.2578
-2.5416 DISABLE -0.2578
-1.6385 DISTANCE -0.2366
-2.5416 ENABLE -0.2578
-1.5416 FEEDBACK -0.2819
-2.2405 HELP -0.2973
-2.5416 HIGHER -0.2578
-2.2405 INCREASE -0.2578
-2.5416 LOUD -0.2578
-2.5416 LOWER -0.2578
-2.5416 MAXIMUM -0.2578
-2.5416 METERS -0.2578
-2.2405 MINIMUM -0.2578
-1.8426 NAVIGATION -0.2832
-2.2405 OBSTACLE -0.2466
-2.5416 OFF -0.2578
-2.5416 PACES -0.2578
-2.2405 PATH -0.2578
-2.5416 POSITIONAL -0.2578
-2.5416 SCENE -0.2578
-2.2405 SETUP -0.2985
-2.5416 SHOW -0.2985
-2.5416 SNAPSHOT -0.2578
-2.2405 SPEED -0.2960
-2.5416 START -0.2578
-2.5416 STEREO -0.2578
-2.2405 STOP -0.2578
-1.0364 SYSTEM -0.2522
-2.5416 TONE -0.2578
-2.5416 TURN -0.2998
-1.7634 TYPE -0.2909
-2.5416 VOICE -0.2578
-1.8426 VOLUME -0.2922

\2-grams:
-1.8195 <s> DEBUG 0.0000
-0.3144 <s> SYSTEM 0.0000
-0.3010 CLASSIFY </s> -0.3010
-0.3010 COMMANDS </s> -0.3010
-0.3010 CONTINUOUS </s> -0.3010
-0.3010 DEBUG SNAPSHOT 0.0000
-0.3010 DECREASE </s> -0.3010
-0.3010 DEFAULT </s> -0.3010
-0.3010 DISABLE </s> -0.3010
-1.2041 DISTANCE </s> -0.3010
-1.2041 DISTANCE DECREASE 0.0000
-1.2041 DISTANCE DEFAULT 0.0000
-1.2041 DISTANCE INCREASE 0.0000
-1.2041 DISTANCE MAXIMUM 0.0000
-1.2041 DISTANCE MINIMUM 0.0000
-0.9031 DISTANCE TYPE -0.2218
-0.3010 ENABLE </s> -0.3010
-1.3010 FEEDBACK CONTINUOUS 0.0000
-1.3010 FEEDBACK SCENE 0.0000
-1.0000 FEEDBACK SPEED 0.0000
-1.3010 FEEDBACK START 0.0000
-1.3010 FEEDBACK STOP 0.0000
-1.3010 FEEDBACK TONE 0.0000
-1.0000 FEEDBACK TYPE -0.2218
-1.3010 FEEDBACK VOICE 0.0000
-0.6021 HELP COMMANDS 0.0000
-0.6021 HELP STOP 0.0000
-0.3010 HIGHER </s> -0.3010
-0.3010 INCREASE </s> -0.3010
-0.3010 LOUD </s> -0.3010
-0.3010 LOWER </s> -0.3010
-0.3010 MAXIMUM </s> -0.3010
-0.3010 METERS </s> -0.3010
-0.3010 MINIMUM </s> -0.3010
-0.5229 NAVIGATION DISTANCE -0.2109
-0.6990 NAVIGATION TYPE -0.2218
-0.6021 OBSTACLE </s> -0.3010
-0.6021 OBSTACLE DISTANCE -0.2730
-0.3010 OFF </s> -0.3010
-0.3010 PACES </s> -0.3010
-0.3010 PATH </s> -0.3010
-0.3010 POSITIONAL </s> -0.3010
-0.3010 SCENE </s> -0.3010
-0.6021 SETUP DISABLE 0.0000
-0.6021 SETUP ENABLE 0.0000
-0.3010 SHOW PATH 0.0000
-0.3010 SNAPSHOT </s> -0.3010
-0.6021 SPEED DECREASE 0.0000
-0.6021 SPEED INCREASE 0.0000
-0.3010 START </s> -0.3010
-0.3010 STEREO </s> -0.3010
-0.3010 STOP </s> -0.3010
-1.8062 SYSTEM CLASSIFY 0.0000
-1.2041 SYSTEM DISTANCE -0.1761
-0.8062 SYSTEM FEEDBACK 0.0000
-1.5051 SYSTEM HELP 0.0000
-1.1072 SYSTEM NAVIGATION 0.0000
-1.8062 SYSTEM OBSTACLE -0.1761
-1.5051 SYSTEM SETUP 0.0000
-1.8062 SYSTEM SHOW 0.0000
-1.8062 SYSTEM TURN 0.0000
-1.1072 SYSTEM VOLUME 0.0000
-0.3010 TONE </s> -0.3010
-0.3010 TURN OFF 0.0000
-1.0792 TYPE METERS 0.0000
-1.0792 TYPE OBSTACLE -0.1761
-1.0792 TYPE PACES 0.0000
-1.0792 TYPE PATH 0.0000
-1.0792 TYPE POSITIONAL 0.0000
-1.0792 TYPE STEREO 0.0000
-0.3010 VOICE </s> -0.3010
-1.0000 VOLUME DEFAULT 0.0000
-1.0000 VOLUME HIGHER 0.0000
-1.0000 VOLUME LOUD 0.0000
-1.0000 VOLUME LOWER 0.0000
-1.0000 VOLUME MINIMUM 0.0000

\3-grams:
-0.3010 <s> DEBUG SNAPSHOT
-1.8062 <s> SYSTEM CLASSIFY
-1.2041 <s> SYSTEM DISTANCE
-0.8062 <s> SYSTEM FEEDBACK
-1.5051 <s> SYSTEM HELP
-1.1072 <s> SYSTEM NAVIGATION
-1.8062 <s> SYSTEM OBSTACLE
-1.5051 <s> SYSTEM SETUP
-1.8062 <s> SYSTEM SHOW
-1.8062 <s> SYSTEM TURN
-1.1072 <s> SYSTEM VOLUME
-0.3010 DEBUG SNAPSHOT </s>
-0.3010 DISTANCE DECREASE </s>
-0.3010 DISTANCE DEFAULT </s>
-0.3010 DISTANCE INCREASE </s>
-0.3010 DISTANCE MAXIMUM </s>
-0.3010 DISTANCE MINIMUM </s>
-0.6021 DISTANCE TYPE METERS
-0.6021 DISTANCE TYPE PACES
-0.3010 FEEDBACK CONTINUOUS </s>
-0.3010 FEEDBACK SCENE </s>
-0.6021 FEEDBACK SPEED DECREASE
-0.6021 FEEDBACK SPEED INCREASE
-0.3010 FEEDBACK START </s>
-0.3010 FEEDBACK STOP </s>
-0.3010 FEEDBACK TONE </s>
-0.6021 FEEDBACK TYPE POSITIONAL
-0.6021 FEEDBACK TYPE STEREO
-0.3010 FEEDBACK VOICE </s>
-0.3010 HELP COMMANDS </s>
-0.3010 HELP STOP </s>
-0.7782 NAVIGATION DISTANCE DEFAULT
-0.7782 NAVIGATION DISTANCE MAXIMUM
-0.7782 NAVIGATION DISTANCE MINIMUM
-0.6021 NAVIGATION TYPE OBSTACLE
-0.6021 NAVIGATION TYPE PATH
-0.3010 OBSTACLE DISTANCE </s>
-0.3010 SETUP DISABLE </s>
-0.3010 SETUP ENABLE </s>
-0.3010 SHOW PATH </s>
-0.3010 SPEED DECREASE </s>
-0.3010 SPEED INCREASE </s>
-0.3010 SYSTEM CLASSIFY </s>
-0.9031 SYSTEM DISTANCE DECREASE
-0.9031 SYSTEM DISTANCE INCREASE
-0.6021 SYSTEM DISTANCE TYPE
-1.3010 SYSTEM FEEDBACK CONTINUOUS
-1.3010 SYSTEM FEEDBACK SCENE
-1.0000 SYSTEM FEEDBACK SPEED
-1.3010 SYSTEM FEEDBACK START
-1.3010 SYSTEM FEEDBACK STOP
-1.3010 SYSTEM FEEDBACK TONE
-1.0000 SYSTEM FEEDBACK TYPE
-1.3010 SYSTEM FEEDBACK VOICE
-0.6021 SYSTEM HELP COMMANDS
-0.6021 SYSTEM HELP STOP
-0.5229 SYSTEM NAVIGATION DISTANCE
-0.6990 SYSTEM NAVIGATION TYPE
-0.3010 SYSTEM OBSTACLE DISTANCE
-0.6021 SYSTEM SETUP DISABLE
-0.6021 SYSTEM SETUP ENABLE
-0.3010 SYSTEM SHOW PATH
-0.3010 SYSTEM TURN OFF
-1.0000 SYSTEM VOLUME DEFAULT
-1.0000 SYSTEM VOLUME HIGHER
-1.0000 SYSTEM VOLUME LOUD
-1.0000 SYSTEM VOLUME LOWER
-1.0000 SYSTEM VOLUME MINIMUM
-0.3010 TURN OFF </s>
-0.3010 TYPE METERS </s>
-0.3010 TYPE OBSTACLE </s>
-0.3010 TYPE PACES </s>
-0.3010 TYPE PATH </s>
-0.3010 TYPE POSITIONAL </s>
-0.3010 TYPE STEREO </s>
-0.3010 VOLUME DEFAULT </s>
-0.3010 VOLUME HIGHER </s>
-0.3010 VOLUME LOUD </s>
-0.3010 VOLUME LOWER </s>
-0.3010 VOLUME MINIMUM </s>

\end\
