Language model created by QuickLM on Sun May  5 14:07:58 EDT 2019
Copyright (c) 1996-2010 Carnegie Mellon University and Alexander I. Rudnicky

The model is in standard ARPA format, designed by Doug Paul while he was at MITRE.

The code that was used to produce this language model is available in Open Source.
Please visit http://www.speech.cs.cmu.edu/tools/ for more information

The (fixed) discount mass is 0.5. The backoffs are computed using the ratio method.
This model based on a corpus of 37 sentences and 40 words

\data\
ngram 1=40
ngram 2=84
ngram 3=92

\1-grams:
-1.0295 </s> -0.3010
-1.0295 <s> -0.2584
-2.5977 CLASSIFY -0.2584
-2.5977 COMMANDS -0.2584
-2.5977 CONTINUOUS -0.2584
-2.5977 DEBUG -0.2999
-1.9956 DECREASE -0.2499
-2.2967 DEFAULT -0.2584
-2.5977 DISABLE -0.2584
-1.5185 DISTANCE -0.2297
-2.5977 ENABLE -0.2584
-1.5977 FEEDBACK -0.2843
-2.2967 HELP -0.2977
-2.5977 HIGHER -0.2584
-1.9956 INCREASE -0.2499
-2.5977 LOUD -0.2584
-2.5977 LOWER -0.2584
-2.1206 MAXIMUM -0.2437
-2.5977 METERS -0.2584
-1.9956 MINIMUM -0.2437
-1.8987 NAVIGATION -0.2808
-2.2967 OBSTACLE -0.2437
-2.5977 OFF -0.2584
-2.5977 PACES -0.2584
-2.2967 PATH -0.2584
-2.5977 POSITIONAL -0.2584
-2.5977 SCENE -0.2584
-2.2967 SETUP -0.2988
-2.5977 SHOW -0.2988
-2.5977 SNAPSHOT -0.2584
-2.2967 SPEED -0.2922
-2.5977 START -0.2584
-2.5977 STEREO -0.2584
-2.2967 STOP -0.2584
-1.0414 SYSTEM -0.2437
-2.5977 TONE -0.2584
-2.5977 TURN -0.2999
-1.8195 TYPE -0.2922
-2.5977 VOICE -0.2584
-1.8987 VOLUME -0.2910

\2-grams:
-1.8692 <s> DEBUG 0.0000
-0.3129 <s> SYSTEM 0.0000
-0.3010 CLASSIFY </s> -0.3010
-0.3010 COMMANDS </s> -0.3010
-0.3010 CONTINUOUS </s> -0.3010
-0.3010 DEBUG SNAPSHOT 0.0000
-0.6021 DECREASE </s> -0.3010
-0.9031 DECREASE MAXIMUM -0.1249
-0.9031 DECREASE MINIMUM -0.1761
-0.3010 DEFAULT </s> -0.3010
-0.3010 DISABLE </s> -0.3010
-0.6812 DISTANCE </s> -0.3010
-1.3802 DISTANCE DECREASE -0.1761
-1.3802 DISTANCE DEFAULT 0.0000
-1.3802 DISTANCE INCREASE -0.1761
-1.3802 DISTANCE MAXIMUM -0.2218
-1.3802 DISTANCE MINIMUM -0.1761
-1.0792 DISTANCE TYPE -0.2218
-0.3010 ENABLE </s> -0.3010
-1.3010 FEEDBACK CONTINUOUS 0.0000
-1.3010 FEEDBACK SCENE 0.0000
-1.0000 FEEDBACK SPEED 0.0000
-1.3010 FEEDBACK START 0.0000
-1.3010 FEEDBACK STOP 0.0000
-1.3010 FEEDBACK TONE 0.0000
-1.0000 FEEDBACK TYPE -0.2218
-1.3010 FEEDBACK VOICE 0.0000
-0.6021 HELP COMMANDS 0.0000
-0.6021 HELP STOP 0.0000
-0.3010 HIGHER </s> -0.3010
-0.6021 INCREASE </s> -0.3010
-0.9031 INCREASE MAXIMUM -0.1249
-0.9031 INCREASE MINIMUM -0.1761
-0.3010 LOUD </s> -0.3010
-0.3010 LOWER </s> -0.3010
-0.7782 MAXIMUM </s> -0.3010
-0.4771 MAXIMUM DISTANCE -0.1996
-0.3010 METERS </s> -0.3010
-0.6021 MINIMUM </s> -0.3010
-0.6021 MINIMUM DISTANCE -0.1996
-0.5229 NAVIGATION DISTANCE -0.2430
-0.6990 NAVIGATION TYPE -0.2218
-0.6021 OBSTACLE </s> -0.3010
-0.6021 OBSTACLE DISTANCE -0.1996
-0.3010 OFF </s> -0.3010
-0.3010 PACES </s> -0.3010
-0.3010 PATH </s> -0.3010
-0.3010 POSITIONAL </s> -0.3010
-0.3010 SCENE </s> -0.3010
-0.6021 SETUP DISABLE 0.0000
-0.6021 SETUP ENABLE 0.0000
-0.3010 SHOW PATH 0.0000
-0.3010 SNAPSHOT </s> -0.3010
-0.6021 SPEED DECREASE -0.1761
-0.6021 SPEED INCREASE -0.1761
-0.3010 START </s> -0.3010
-0.3010 STEREO </s> -0.3010
-0.3010 STOP </s> -0.3010
-1.8573 SYSTEM CLASSIFY 0.0000
-1.5563 SYSTEM DECREASE -0.1761
-1.2553 SYSTEM DISTANCE -0.2218
-0.8573 SYSTEM FEEDBACK 0.0000
-1.5563 SYSTEM HELP 0.0000
-1.5563 SYSTEM INCREASE -0.1761
-1.1584 SYSTEM NAVIGATION 0.0000
-1.8573 SYSTEM OBSTACLE -0.1761
-1.5563 SYSTEM SETUP 0.0000
-1.8573 SYSTEM SHOW 0.0000
-1.8573 SYSTEM TURN 0.0000
-1.1584 SYSTEM VOLUME 0.0000
-0.3010 TONE </s> -0.3010
-0.3010 TURN OFF 0.0000
-1.0792 TYPE METERS 0.0000
-1.0792 TYPE OBSTACLE -0.1761
-1.0792 TYPE PACES 0.0000
-1.0792 TYPE PATH 0.0000
-1.0792 TYPE POSITIONAL 0.0000
-1.0792 TYPE STEREO 0.0000
-0.3010 VOICE </s> -0.3010
-1.0000 VOLUME DEFAULT 0.0000
-1.0000 VOLUME HIGHER 0.0000
-1.0000 VOLUME LOUD 0.0000
-1.0000 VOLUME LOWER 0.0000
-1.0000 VOLUME MINIMUM -0.1761

\3-grams:
-0.3010 <s> DEBUG SNAPSHOT
-1.8573 <s> SYSTEM CLASSIFY
-1.5563 <s> SYSTEM DECREASE
-1.2553 <s> SYSTEM DISTANCE
-0.8573 <s> SYSTEM FEEDBACK
-1.5563 <s> SYSTEM HELP
-1.5563 <s> SYSTEM INCREASE
-1.1584 <s> SYSTEM NAVIGATION
-1.8573 <s> SYSTEM OBSTACLE
-1.5563 <s> SYSTEM SETUP
-1.8573 <s> SYSTEM SHOW
-1.8573 <s> SYSTEM TURN
-1.1584 <s> SYSTEM VOLUME
-0.3010 DEBUG SNAPSHOT </s>
-0.3010 DECREASE MAXIMUM DISTANCE
-0.3010 DECREASE MINIMUM DISTANCE
-0.3010 DISTANCE DECREASE </s>
-0.3010 DISTANCE DEFAULT </s>
-0.3010 DISTANCE INCREASE </s>
-0.3010 DISTANCE MAXIMUM </s>
-0.3010 DISTANCE MINIMUM </s>
-0.6021 DISTANCE TYPE METERS
-0.6021 DISTANCE TYPE PACES
-0.3010 FEEDBACK CONTINUOUS </s>
-0.3010 FEEDBACK SCENE </s>
-0.6021 FEEDBACK SPEED DECREASE
-0.6021 FEEDBACK SPEED INCREASE
-0.3010 FEEDBACK START </s>
-0.3010 FEEDBACK STOP </s>
-0.3010 FEEDBACK TONE </s>
-0.6021 FEEDBACK TYPE POSITIONAL
-0.6021 FEEDBACK TYPE STEREO
-0.3010 FEEDBACK VOICE </s>
-0.3010 HELP COMMANDS </s>
-0.3010 HELP STOP </s>
-0.3010 INCREASE MAXIMUM DISTANCE
-0.3010 INCREASE MINIMUM DISTANCE
-0.3010 MAXIMUM DISTANCE </s>
-0.3010 MINIMUM DISTANCE </s>
-0.7782 NAVIGATION DISTANCE DEFAULT
-0.7782 NAVIGATION DISTANCE MAXIMUM
-0.7782 NAVIGATION DISTANCE MINIMUM
-0.6021 NAVIGATION TYPE OBSTACLE
-0.6021 NAVIGATION TYPE PATH
-0.3010 OBSTACLE DISTANCE </s>
-0.3010 SETUP DISABLE </s>
-0.3010 SETUP ENABLE </s>
-0.3010 SHOW PATH </s>
-0.3010 SPEED DECREASE </s>
-0.3010 SPEED INCREASE </s>
-0.3010 SYSTEM CLASSIFY </s>
-0.6021 SYSTEM DECREASE MAXIMUM
-0.6021 SYSTEM DECREASE MINIMUM
-0.9031 SYSTEM DISTANCE DECREASE
-0.9031 SYSTEM DISTANCE INCREASE
-0.6021 SYSTEM DISTANCE TYPE
-1.3010 SYSTEM FEEDBACK CONTINUOUS
-1.3010 SYSTEM FEEDBACK SCENE
-1.0000 SYSTEM FEEDBACK SPEED
-1.3010 SYSTEM FEEDBACK START
-1.3010 SYSTEM FEEDBACK STOP
-1.3010 SYSTEM FEEDBACK TONE
-1.0000 SYSTEM FEEDBACK TYPE
-1.3010 SYSTEM FEEDBACK VOICE
-0.6021 SYSTEM HELP COMMANDS
-0.6021 SYSTEM HELP STOP
-0.6021 SYSTEM INCREASE MAXIMUM
-0.6021 SYSTEM INCREASE MINIMUM
-0.5229 SYSTEM NAVIGATION DISTANCE
-0.6990 SYSTEM NAVIGATION TYPE
-0.3010 SYSTEM OBSTACLE DISTANCE
-0.6021 SYSTEM SETUP DISABLE
-0.6021 SYSTEM SETUP ENABLE
-0.3010 SYSTEM SHOW PATH
-0.3010 SYSTEM TURN OFF
-1.0000 SYSTEM VOLUME DEFAULT
-1.0000 SYSTEM VOLUME HIGHER
-1.0000 SYSTEM VOLUME LOUD
-1.0000 SYSTEM VOLUME LOWER
-1.0000 SYSTEM VOLUME MINIMUM
-0.3010 TURN OFF </s>
-0.3010 TYPE METERS </s>
-0.3010 TYPE OBSTACLE </s>
-0.3010 TYPE PACES </s>
-0.3010 TYPE PATH </s>
-0.3010 TYPE POSITIONAL </s>
-0.3010 TYPE STEREO </s>
-0.3010 VOLUME DEFAULT </s>
-0.3010 VOLUME HIGHER </s>
-0.3010 VOLUME LOUD </s>
-0.3010 VOLUME LOWER </s>
-0.3010 VOLUME MINIMUM </s>

\end\
