Language model created by QuickLM on Fri May  5 13:27:41 EDT 2017
Copyright (c) 1996-2010 Carnegie Mellon University and Alexander I. Rudnicky

The model is in standard ARPA format, designed by Doug Paul while he was at MITRE.

The code that was used to produce this language model is available in Open Source.
Please visit http://www.speech.cs.cmu.edu/tools/ for more information

The (fixed) discount mass is 0.5. The backoffs are computed using the ratio method.
This model based on a corpus of 22 sentences and 31 words

\data\
ngram 1=31
ngram 2=53
ngram 3=57

\1-grams:
-1.0155 </s> -0.3010
-1.0155 <s> -0.2570
-2.3579 ajuda -0.2570
-2.0569 AUMENTAR -0.2816
-2.0569 CAMINHO -0.2570
-2.3579 COMANDOS -0.2570
-2.3579 DESLIGAR -0.2972
-2.0569 DIMINUIR -0.2816
-1.6590 DISTâNCIA -0.2506
-2.3579 DO -0.2972
-2.0569 EM -0.2972
-2.3579 ESTéREO -0.2570
-1.7559 FEEDBACK -0.2933
-2.3579 IDENTIFICAR -0.2570
-2.3579 LIGAR -0.2972
-2.3579 METROS -0.2570
-2.0569 MOSTRAR -0.2953
-2.3579 MáXIMO -0.2570
-2.3579 MíNIMO -0.2570
-2.0569 NAVEGAçãO -0.2972
-2.0569 OBSTáCULO -0.2570
-2.3579 PADRãO -0.2570
-2.3579 PARAR -0.2991
-2.3579 PASSOS -0.2570
-2.0569 PERSONALIZAçãO -0.2570
-2.0569 POR -0.2933
-2.3579 POSICIONAL -0.2570
-1.0155 SISTEMA -0.2484
-2.3579 TOM -0.2570
-1.6590 VOLUME -0.2506
-2.3579 VOZ -0.2570

\2-grams:
-0.3010 <s> SISTEMA 0.0000
-0.3010 ajuda </s> -0.3010
-0.6021 AUMENTAR DISTâNCIA -0.2041
-0.6021 AUMENTAR VOLUME -0.2041
-0.3010 CAMINHO </s> -0.3010
-0.3010 COMANDOS </s> -0.3010
-0.3010 DESLIGAR PERSONALIZAçãO 0.0000
-0.6021 DIMINUIR DISTâNCIA -0.2041
-0.6021 DIMINUIR VOLUME -0.2041
-0.6990 DISTâNCIA </s> -0.3010
-1.0000 DISTâNCIA DO 0.0000
-0.6990 DISTâNCIA EM 0.0000
-0.3010 DO OBSTáCULO 0.0000
-0.6021 EM METROS 0.0000
-0.6021 EM PASSOS 0.0000
-0.3010 ESTéREO </s> -0.3010
-0.9031 FEEDBACK ESTéREO 0.0000
-0.9031 FEEDBACK POSICIONAL 0.0000
-0.9031 FEEDBACK TOM 0.0000
-0.9031 FEEDBACK VOZ 0.0000
-0.3010 IDENTIFICAR </s> -0.3010
-0.3010 LIGAR PERSONALIZAçãO 0.0000
-0.3010 METROS </s> -0.3010
-0.6021 MOSTRAR CAMINHO 0.0000
-0.6021 MOSTRAR COMANDOS 0.0000
-0.3010 MáXIMO </s> -0.3010
-0.3010 MíNIMO </s> -0.3010
-0.3010 NAVEGAçãO POR 0.0000
-0.3010 OBSTáCULO </s> -0.3010
-0.3010 PADRãO </s> -0.3010
-0.3010 PARAR ajuda 0.0000
-0.3010 PASSOS </s> -0.3010
-0.3010 PERSONALIZAçãO </s> -0.3010
-0.6021 POR CAMINHO 0.0000
-0.6021 POR OBSTáCULO 0.0000
-0.3010 POSICIONAL </s> -0.3010
-1.3424 SISTEMA AUMENTAR 0.0000
-1.6435 SISTEMA DESLIGAR 0.0000
-1.3424 SISTEMA DIMINUIR 0.0000
-1.1663 SISTEMA DISTâNCIA -0.1461
-1.0414 SISTEMA FEEDBACK 0.0000
-1.6435 SISTEMA IDENTIFICAR 0.0000
-1.6435 SISTEMA LIGAR 0.0000
-1.3424 SISTEMA MOSTRAR 0.0000
-1.3424 SISTEMA NAVEGAçãO 0.0000
-1.6435 SISTEMA PARAR 0.0000
-1.1663 SISTEMA VOLUME -0.1461
-0.3010 TOM </s> -0.3010
-0.6990 VOLUME </s> -0.3010
-1.0000 VOLUME MáXIMO 0.0000
-1.0000 VOLUME MíNIMO 0.0000
-1.0000 VOLUME PADRãO 0.0000
-0.3010 VOZ </s> -0.3010

\3-grams:
-1.3424 <s> SISTEMA AUMENTAR
-1.6435 <s> SISTEMA DESLIGAR
-1.3424 <s> SISTEMA DIMINUIR
-1.1663 <s> SISTEMA DISTâNCIA
-1.0414 <s> SISTEMA FEEDBACK
-1.6435 <s> SISTEMA IDENTIFICAR
-1.6435 <s> SISTEMA LIGAR
-1.3424 <s> SISTEMA MOSTRAR
-1.3424 <s> SISTEMA NAVEGAçãO
-1.6435 <s> SISTEMA PARAR
-1.1663 <s> SISTEMA VOLUME
-0.3010 AUMENTAR DISTâNCIA </s>
-0.3010 AUMENTAR VOLUME </s>
-0.3010 DESLIGAR PERSONALIZAçãO </s>
-0.3010 DIMINUIR DISTâNCIA </s>
-0.3010 DIMINUIR VOLUME </s>
-0.3010 DISTâNCIA DO OBSTáCULO
-0.6021 DISTâNCIA EM METROS
-0.6021 DISTâNCIA EM PASSOS
-0.3010 DO OBSTáCULO </s>
-0.3010 EM METROS </s>
-0.3010 EM PASSOS </s>
-0.3010 FEEDBACK ESTéREO </s>
-0.3010 FEEDBACK POSICIONAL </s>
-0.3010 FEEDBACK TOM </s>
-0.3010 FEEDBACK VOZ </s>
-0.3010 LIGAR PERSONALIZAçãO </s>
-0.3010 MOSTRAR CAMINHO </s>
-0.3010 MOSTRAR COMANDOS </s>
-0.6021 NAVEGAçãO POR CAMINHO
-0.6021 NAVEGAçãO POR OBSTáCULO
-0.3010 PARAR ajuda </s>
-0.3010 POR CAMINHO </s>
-0.3010 POR OBSTáCULO </s>
-0.6021 SISTEMA AUMENTAR DISTâNCIA
-0.6021 SISTEMA AUMENTAR VOLUME
-0.3010 SISTEMA DESLIGAR PERSONALIZAçãO
-0.6021 SISTEMA DIMINUIR DISTâNCIA
-0.6021 SISTEMA DIMINUIR VOLUME
-0.7782 SISTEMA DISTâNCIA DO
-0.4771 SISTEMA DISTâNCIA EM
-0.9031 SISTEMA FEEDBACK ESTéREO
-0.9031 SISTEMA FEEDBACK POSICIONAL
-0.9031 SISTEMA FEEDBACK TOM
-0.9031 SISTEMA FEEDBACK VOZ
-0.3010 SISTEMA IDENTIFICAR </s>
-0.3010 SISTEMA LIGAR PERSONALIZAçãO
-0.6021 SISTEMA MOSTRAR CAMINHO
-0.6021 SISTEMA MOSTRAR COMANDOS
-0.3010 SISTEMA NAVEGAçãO POR
-0.3010 SISTEMA PARAR ajuda
-0.7782 SISTEMA VOLUME MáXIMO
-0.7782 SISTEMA VOLUME MíNIMO
-0.7782 SISTEMA VOLUME PADRãO
-0.3010 VOLUME MáXIMO </s>
-0.3010 VOLUME MíNIMO </s>
-0.3010 VOLUME PADRãO </s>

\end\
